0.006241841839595376
0.0026015101509619027
-0.0035444497007000994
-0.0010868234529859502
-0.002806465594458605
-0.0032662147695433816
0.0026843421035684122
-0.0036412278660604576
0.007056600774960663
0.010079999509655038
0.005489041228914106
0.0034490672455964183
0.002129966270304181
0.001986949926366592
-0.00041837165377813624
0.0067201914289107805
0.002715844288193951
-0.003886937070737917
-0.0017812747307677276
0.011288337194404991
0.046525624167332046
0.008381329452907616
-0.0023985355938594645
-0.005389469381796819
-0.0010050864501181982
-0.0012048701292222623
-0.0037126160296333185
0.006205141726441895
0.010132248780260492
-0.0020429911092571785
-0.003007769252090299
-0.0018538861070940445
0.0015439461044748641
0.0014400230300610293
0.002360048443001094
0.004217781801037256
-0.0028031943409211066
-0.00673794508672988
-0.010360924275161092
-0.004949926797924134
-0.003984936876392188
-0.0028189883302179608
-0.0010864770932508862
0.0985182306540958
0.20701128110632655
0.058033940416315474
0.004386270903643471
-4.726719829209903e-5
-0.008423136109965777
-0.000657793070789305
0.004722615305844282
0.0047819271660832835
0.005300918578197944
0.005529162698007638
9.617506162903286e-5
0.0014046138546268002
0.006836465213765455
0.0008181634956654835
